digraph Tree {
node [shape=box, style="filled, rounded", color="black", fontname=helvetica] ;
edge [fontname=helvetica] ;
0 [label="Torque [Nm] <= 62.35\ngini = 0.067\nsamples = 7500\nvalue = [86, 7245, 57, 64, 13, 35]\nclass = No Failure", fillcolor="#a0e640"] ;
1 [label="Torque [Nm] <= 13.15\ngini = 0.053\nsamples = 7413\nvalue = [77, 7212, 48, 29, 13, 34]\nclass = No Failure", fillcolor="#a0e63e"] ;
0 -> 1 [labeldistance=2.5, labelangle=45, headlabel="True"] ;
2 [label="Process temperature [K] <= 313.3\ngini = 0.172\nsamples = 21\nvalue = [0, 2, 0, 19, 0, 0]\nclass = Power Failure", fillcolor="#4ea7e8"] ;
1 -> 2 ;
3 [label="Tool wear [min] <= 14.0\ngini = 0.095\nsamples = 20\nvalue = [0, 1, 0, 19, 0, 0]\nclass = Power Failure", fillcolor="#43a2e6"] ;
2 -> 3 ;
4 [label="gini = 0.5\nsamples = 2\nvalue = [0, 1, 0, 1, 0, 0]\nclass = No Failure", fillcolor="#ffffff"] ;
3 -> 4 ;
5 [label="gini = 0.0\nsamples = 18\nvalue = [0, 0, 0, 18, 0, 0]\nclass = Power Failure", fillcolor="#399de5"] ;
3 -> 5 ;
6 [label="gini = 0.0\nsamples = 1\nvalue = [0, 1, 0, 0, 0, 0]\nclass = No Failure", fillcolor="#9de539"] ;
2 -> 6 ;
7 [label="Rotational speed [rpm] <= 1379.5\ngini = 0.048\nsamples = 7392\nvalue = [77, 7210, 48, 10, 13, 34]\nclass = No Failure", fillcolor="#9fe63e"] ;
1 -> 7 ;
8 [label="Air temperature [K] <= 301.55\ngini = 0.223\nsamples = 960\nvalue = [77, 842, 37, 0, 3, 1]\nclass = No Failure", fillcolor="#aae853"] ;
7 -> 8 ;
9 [label="gini = 0.082\nsamples = 727\nvalue = [0, 696, 30, 0, 0, 1]\nclass = No Failure", fillcolor="#a1e642"] ;
8 -> 9 ;
10 [label="gini = 0.497\nsamples = 233\nvalue = [77, 146, 7, 0, 3, 0]\nclass = No Failure", fillcolor="#d4f4a7"] ;
8 -> 10 ;
11 [label="Tool wear [min] <= 215.5\ngini = 0.02\nsamples = 6432\nvalue = [0, 6368, 11, 10, 10, 33]\nclass = No Failure", fillcolor="#9ee53b"] ;
7 -> 11 ;
12 [label="gini = 0.012\nsamples = 6290\nvalue = [0, 6251, 4, 10, 10, 15]\nclass = No Failure", fillcolor="#9ee53a"] ;
11 -> 12 ;
13 [label="gini = 0.303\nsamples = 142\nvalue = [0, 117, 7, 0, 0, 18]\nclass = No Failure", fillcolor="#b1ea61"] ;
11 -> 13 ;
14 [label="Torque [Nm] <= 67.85\ngini = 0.673\nsamples = 87\nvalue = [9, 33, 9, 35, 0, 1]\nclass = Power Failure", fillcolor="#f8fbfe"] ;
0 -> 14 [labeldistance=2.5, labelangle=-45, headlabel="False"] ;
15 [label="Rotational speed [rpm] <= 1354.5\ngini = 0.675\nsamples = 64\nvalue = [9, 31, 8, 15, 0, 1]\nclass = No Failure", fillcolor="#dff7be"] ;
14 -> 15 ;
16 [label="Tool wear [min] <= 171.0\ngini = 0.609\nsamples = 52\nvalue = [9, 30, 7, 5, 0, 1]\nclass = No Failure", fillcolor="#cff29e"] ;
15 -> 16 ;
17 [label="gini = 0.448\nsamples = 42\nvalue = [7, 30, 0, 5, 0, 0]\nclass = No Failure", fillcolor="#bfee7d"] ;
16 -> 17 ;
18 [label="gini = 0.46\nsamples = 10\nvalue = [2, 0, 7, 0, 0, 1]\nclass = Overstrain Failure", fillcolor="#83efb0"] ;
16 -> 18 ;
19 [label="Air temperature [K] <= 303.0\ngini = 0.292\nsamples = 12\nvalue = [0, 1, 1, 10, 0, 0]\nclass = Power Failure", fillcolor="#5dafea"] ;
15 -> 19 ;
20 [label="gini = 0.165\nsamples = 11\nvalue = [0, 1, 0, 10, 0, 0]\nclass = Power Failure", fillcolor="#4da7e8"] ;
19 -> 20 ;
21 [label="gini = 0.0\nsamples = 1\nvalue = [0, 0, 1, 0, 0, 0]\nclass = Overstrain Failure", fillcolor="#39e581"] ;
19 -> 21 ;
22 [label="Rotational speed [rpm] <= 1231.0\ngini = 0.234\nsamples = 23\nvalue = [0, 2, 1, 20, 0, 0]\nclass = Power Failure", fillcolor="#55abe9"] ;
14 -> 22 ;
23 [label="Process temperature [K] <= 311.1\ngini = 0.625\nsamples = 4\nvalue = [0, 2, 1, 1, 0, 0]\nclass = No Failure", fillcolor="#def6bd"] ;
22 -> 23 ;
24 [label="gini = 0.0\nsamples = 2\nvalue = [0, 2, 0, 0, 0, 0]\nclass = No Failure", fillcolor="#9de539"] ;
23 -> 24 ;
25 [label="gini = 0.5\nsamples = 2\nvalue = [0, 0, 1, 1, 0, 0]\nclass = Overstrain Failure", fillcolor="#ffffff"] ;
23 -> 25 ;
26 [label="gini = 0.0\nsamples = 19\nvalue = [0, 0, 0, 19, 0, 0]\nclass = Power Failure", fillcolor="#399de5"] ;
22 -> 26 ;
}